digraph Tree {
node [shape=box] ;
0 [label="X[2] <= 2.45\ngini = 0.664\nsamples = 86\nvalue = [41, 50, 44]"] ;
1 [label="gini = 0.0\nsamples = 28\nvalue = [41, 0, 0]"] ;
0 -> 1 [labeldistance=2.5, labelangle=45, headlabel="True"] ;
2 [label="X[0] <= 5.75\ngini = 0.498\nsamples = 58\nvalue = [0, 50, 44]"] ;
0 -> 2 [labeldistance=2.5, labelangle=-45, headlabel="False"] ;
3 [label="X[3] <= 1.5\ngini = 0.087\nsamples = 16\nvalue = [0, 21, 1]"] ;
2 -> 3 ;
4 [label="gini = 0.0\nsamples = 15\nvalue = [0, 21, 0]"] ;
3 -> 4 ;
5 [label="gini = 0.0\nsamples = 1\nvalue = [0, 0, 1]"] ;
3 -> 5 ;
6 [label="X[2] <= 5.05\ngini = 0.481\nsamples = 42\nvalue = [0, 29, 43]"] ;
2 -> 6 ;
7 [label="X[3] <= 1.75\ngini = 0.284\nsamples = 22\nvalue = [0, 29, 6]"] ;
6 -> 7 ;
8 [label="gini = 0.0\nsamples = 17\nvalue = [0, 29, 0]"] ;
7 -> 8 ;
9 [label="gini = 0.0\nsamples = 5\nvalue = [0, 0, 6]"] ;
7 -> 9 ;
10 [label="gini = 0.0\nsamples = 20\nvalue = [0, 0, 37]"] ;
6 -> 10 ;
}